{
  "learningRate": 0.05,
  "layers": [
    {
      "inputNodes": 3,
      "outputNodes": 8,
      "weights": [
        [
          -0.4901505905142306,
          -0.8151714516570182,
          -0.028062331680950736
        ],
        [
          0.4558550416660545,
          0.7937521248032,
          -0.659042063864647
        ],
        [
          -0.6725838700894948,
          0.7857013207079795,
          -0.5769634057371011
        ],
        [
          -0.4934050991641995,
          0.5921707933419118,
          0.8990198152113991
        ],
        [
          0.548928684571498,
          -0.6705769537771757,
          0.7201659080296288
        ],
        [
          -0.13121050734113715,
          -0.7347944011864609,
          -0.9403919445335509
        ],
        [
          -0.18125564342468636,
          0.8350288066993206,
          0.09744393680736896
        ],
        [
          -0.576401637469216,
          -0.06274758539069147,
          -0.5271192168897867
        ]
      ],
      "bias": [
        [
          0
        ],
        [
          0
        ],
        [
          0
        ],
        [
          0
        ],
        [
          0
        ],
        [
          0
        ],
        [
          0
        ],
        [
          0
        ]
      ]
    },
    {
      "inputNodes": 8,
      "outputNodes": 6,
      "weights": [
        [
          10.328053300362138,
          10.192425250895708,
          8.994987092219054,
          10.001440764032504,
          10.196564570260557,
          9.546226196473336,
          9.47692221939573,
          9.028484379837051
        ],
        [
          16.336734985901508,
          16.70583592361269,
          15.434524900998476,
          16.738969049627265,
          16.823571160688843,
          15.919448722365033,
          15.258724072968779,
          15.164368587732604
        ],
        [
          8.716851132701743,
          8.735770913595486,
          8.23829514556842,
          9.250876823339015,
          8.669935429969891,
          9.136209947587593,
          9.01685720021249,
          9.332422970367874
        ],
        [
          -11.514834475335643,
          -11.085582991713427,
          -12.44422395447527,
          -11.045132375370287,
          -11.407906078983643,
          -12.13736429159647,
          -12.14119188000414,
          -11.191223398198886
        ],
        [
          10.685573399177642,
          11.651621114869478,
          10.540784151984994,
          10.791191341041891,
          10.81537836341112,
          11.41932626329939,
          10.299980641480907,
          11.808190569536777
        ],
        [
          -11.79404436670005,
          -11.165219327091599,
          -11.220303397423187,
          -11.99606354462712,
          -10.578687006389998,
          -11.141415363967884,
          -10.508619201790822,
          -11.400839655577634
        ]
      ],
      "bias": [
        [
          -0.7202737994343239,
          1.0546701305220108,
          -0.2583554836563544,
          0.7280222759342836,
          0.17885923741833512,
          -28.62464333941977,
          0.38925268465871593,
          -2.1336469207631423
        ],
        [
          1.98286574593149,
          -82.42910142946857,
          -56.04299140942505,
          -0.2250318843904353,
          2.0549736084723,
          1.3657530803830213,
          -71.95856750542167,
          -54.894192822939694
        ],
        [
          -27.696721521290947,
          1.2825189237061596,
          1.679529377150175,
          0.21013852130162425,
          -39.93996344280402,
          1.6281127472094035,
          0.8523145852186997,
          1.5915129645647064
        ],
        [
          -2.0285472571822045,
          -3.911036088023745,
          -3.094338107361467,
          -0.17041281672573488,
          60.44679436389115,
          -1.9216601773517141,
          -0.8002344753496617,
          -2.6991095066686714
        ],
        [
          1.7258011438847276,
          -43.19936233852113,
          -42.72802311417603,
          0.5437140295368514,
          1.4103456009587791,
          0.29068804080468935,
          -52.13375077288623,
          -37.25790740733716
        ],
        [
          -0.4462907177081719,
          -0.543309068360032,
          31.515948152987917,
          59.471756335690536,
          -1.7623040384471351,
          -1.0211314195706627,
          62.8974704168495,
          30.476527832455638
        ]
      ]
    },
    {
      "inputNodes": 6,
      "outputNodes": 4,
      "weights": [
        [
          -12.285431924755075,
          17.257935869073044,
          16.032339291997975,
          1.4525011156833605,
          -23.966448738399755,
          -5.414142250600925
        ],
        [
          8.43713805775149,
          -13.283601803037898,
          2.2770475440345064,
          7.51440043562543,
          7.255038340122047,
          -2.094067129879602
        ],
        [
          -1.55208686467146,
          9.072038256026456,
          -12.997998368672548,
          -1.0155594551341587,
          8.995650624399161,
          0.3101203411596962
        ],
        [
          -4.374826327106908,
          -6.667251471428729,
          -1.4487837343174645,
          -8.467691413765097,
          0.6284480738842455,
          9.830703467806474
        ]
      ],
      "bias": [
        [
          4.696534114296876,
          -1.078120827256505,
          -4.160976138970288,
          5.474033799179027,
          1.443825477589784,
          -9.952899725874929,
          -0.3591120419679282,
          -3.155462126098355
        ],
        [
          -5.1444002150726185,
          -17.21573576905216,
          -10.430620708174446,
          -5.637637345163601,
          -11.55588856238877,
          0.9979262739897917,
          -8.580393188919675,
          -10.656245876112683
        ],
        [
          -15.215066409013243,
          4.424987932689345,
          2.988408029396866,
          -4.87912108283086,
          -8.153124390126166,
          -5.945146108966366,
          1.6061607672594824,
          5.328113909943056
        ],
        [
          10.28315724885107,
          4.931728752632361,
          2.0531288778403964,
          2.3089242520708533,
          15.325522985957761,
          7.1867961235039335,
          -3.9219296183076415,
          0.5836475348702864
        ]
      ]
    }
  ]
}